<?xml version="1.0"?>
<opencv_storage>
<cascade>
  <stageType>BOOST</stageType>
  <featureType>HAAR</featureType>
  <height>24</height>
  <width>24</width>
  <stageParams>
    <boostType>GAB</boostType>
    <minHitRate>9.9500000476837158e-01</minHitRate>
    <maxFalseAlarm>5.0000000000000000e-01</maxFalseAlarm>
    <weightTrimRate>9.4999998807907104e-01</weightTrimRate>
    <maxDepth>1</maxDepth>
    <maxWeakCount>100</maxWeakCount></stageParams>
  <featureParams>
    <maxCatCount>0</maxCatCount>
    <featSize>1</featSize>
    <mode>BASIC</mode></featureParams>
  <stageNum>12</stageNum>
  <stages>
    <!-- stage 0 -->
    <_>
      <maxWeakCount>4</maxWeakCount>
      <stageThreshold>-1.5025767683982849e-01</stageThreshold>
      <weakClassifiers>
        <_>
          <internalNodes>
            0 -1 12 1.5495407860726118e-03</internalNodes>
          <leafValues>
            5.9016394615173340e-01 -8.5000002384185791e-01</leafValues></_>
        <_>
          <internalNodes>
            0 -1 14 -1.7523428425192833e-02</internalNodes>
          <leafValues>
            8.5949569940567017e-01 -4.6447178721427917e-01</leafValues></_>
        <_>
          <internalNodes>
            0 -1 48 3.4938408061861992e-03</internalNodes>
          <leafValues>
            -4.7916123270988464e-01 7.2407877445220947e-01</leafValues></_>
        <_>
          <internalNodes>
            0 -1 24 1.0388018563389778e-02</internalNodes>
          <leafValues>
            4.4013535976409912e-01 -7.7619069814682007e-01</leafValues></_></weakClassifiers></_>
    <!-- stage 1 -->
    <_>
      <maxWeakCount>5</maxWeakCount>
      <stageThreshold>-1.1817487478256226e+00</stageThreshold>
      <weakClassifiers>
        <_>
          <internalNodes>
            0 -1 39 7.7940861228853464e-04</internalNodes>
          <leafValues>
            -5.8490568399429321e-01 6.3302749395370483e-01</leafValues></_>
        <_>
          <internalNodes>
            0 -1 30 3.8489231374114752e-03</internalNodes>
          <leafValues>
            -5.0942307710647583e-01 6.3297331333160400e-01</leafValues></_>
        <_>
          <internalNodes>
            0 -1 52 4.2443824931979179e-03</internalNodes>
          <leafValues>
            -5.4438942670822144e-01 6.6471868753433228e-01</leafValues></_>
        <_>
          <internalNodes>
            0 -1 31 2.5433942675590515e-02</internalNodes>
          <leafValues>
            -2.4138239026069641e-01 1.</leafValues></_>
        <_>
          <internalNodes>
            0 -1 60 6.6610807552933693e-03</internalNodes>
          <leafValues>
            5.6869441270828247e-01 -5.1958137750625610e-01</leafValues></_></weakClassifiers></_>
    <!-- stage 2 -->
    <_>
      <maxWeakCount>5</maxWeakCount>
      <stageThreshold>-2.1440829336643219e-01</stageThreshold>
      <weakClassifiers>
        <_>
          <internalNodes>
            0 -1 11 -1.0538738220930099e-02</internalNodes>
          <leafValues>
            -9.3103450536727905e-01 4.8872181773185730e-01</leafValues></_>
        <_>
          <internalNodes>
            0 -1 3 -2.9950195923447609e-02</internalNodes>
          <leafValues>
            9.5433616638183594e-01 -3.7969964742660522e-01</leafValues></_>
        <_>
          <internalNodes>
            0 -1 22 2.1819349378347397e-02</internalNodes>
          <leafValues>
            -2.6173973083496094e-01 8.6352527141571045e-01</leafValues></_>
        <_>
          <internalNodes>
            0 -1 19 3.4484513103961945e-02</internalNodes>
          <leafValues>
            -3.1031236052513123e-01 1.</leafValues></_>
        <_>
          <internalNodes>
            0 -1 51 -8.2968611968681216e-04</internalNodes>
          <leafValues>
            -7.6719939708709717e-01 4.2843899130821228e-01</leafValues></_></weakClassifiers></_>
    <!-- stage 3 -->
    <_>
      <maxWeakCount>5</maxWeakCount>
      <stageThreshold>-3.5123795270919800e-01</stageThreshold>
      <weakClassifiers>
        <_>
          <internalNodes>
            0 -1 40 -8.9236376807093620e-03</internalNodes>
          <leafValues>
            7.2727274894714355e-01 -3.5135135054588318e-01</leafValues></_>
        <_>
          <internalNodes>
            0 -1 2 5.3470991551876068e-03</internalNodes>
          <leafValues>
            3.3867639303207397e-01 -8.9338845014572144e-01</leafValues></_>
        <_>
          <internalNodes>
            0 -1 56 -1.1405488476157188e-03</internalNodes>
          <leafValues>
            6.0987979173660278e-01 -3.7612795829772949e-01</leafValues></_>
        <_>
          <internalNodes>
            0 -1 47 -1.9394516944885254e-02</internalNodes>
          <leafValues>
            8.4114235639572144e-01 -2.9933437705039978e-01</leafValues></_>
        <_>
          <internalNodes>
            0 -1 35 -1.1434415355324745e-03</internalNodes>
          <leafValues>
            -6.4910840988159180e-01 4.5476499199867249e-01</leafValues></_></weakClassifiers></_>
    <!-- stage 4 -->
    <_>
      <maxWeakCount>6</maxWeakCount>
      <stageThreshold>-2.0529405772686005e-01</stageThreshold>
      <weakClassifiers>
        <_>
          <internalNodes>
            0 -1 7 1.2901168316602707e-02</internalNodes>
          <leafValues>
            5.4954952001571655e-01 -4.5098039507865906e-01</leafValues></_>
        <_>
          <internalNodes>
            0 -1 46 2.2749051451683044e-02</internalNodes>
          <leafValues>
            -3.3164703845977783e-01 7.8354221582412720e-01</leafValues></_>
        <_>
          <internalNodes>
            0 -1 8 -2.8787320479750633e-03</internalNodes>
          <leafValues>
            -7.0382130146026611e-01 3.8434374332427979e-01</leafValues></_>
        <_>
          <internalNodes>
            0 -1 55 1.1505552567541599e-02</internalNodes>
          <leafValues>
            3.4652277827262878e-01 -6.9947123527526855e-01</leafValues></_>
        <_>
          <internalNodes>
            0 -1 34 2.9906933195888996e-03</internalNodes>
          <leafValues>
            -4.7377228736877441e-01 6.1845320463180542e-01</leafValues></_>
        <_>
          <internalNodes>
            0 -1 5 1.9790842197835445e-03</internalNodes>
          <leafValues>
            3.6570319533348083e-01 -9.1257101297378540e-01</leafValues></_></weakClassifiers></_>
    <!-- stage 5 -->
    <_>
      <maxWeakCount>6</maxWeakCount>
      <stageThreshold>-3.0301290750503540e-01</stageThreshold>
      <weakClassifiers>
        <_>
          <internalNodes>
            0 -1 25 -1.6998304426670074e-01</internalNodes>
          <leafValues>
            -1. 5.1515150070190430e-01</leafValues></_>
        <_>
          <internalNodes>
            0 -1 44 -2.8336174786090851e-02</internalNodes>
          <leafValues>
            1. -2.7116695046424866e-01</leafValues></_>
        <_>
          <internalNodes>
            0 -1 53 -1.2909963261336088e-03</internalNodes>
          <leafValues>
            9.3079078197479248e-01 -1.8278184533119202e-01</leafValues></_>
        <_>
          <internalNodes>
            0 -1 6 1.1151195940328762e-04</internalNodes>
          <leafValues>
            -4.1244328022003174e-01 5.9496259689331055e-01</leafValues></_>
        <_>
          <internalNodes>
            0 -1 59 4.2391275201225653e-05</internalNodes>
          <leafValues>
            -5.1338773965835571e-01 5.2568298578262329e-01</leafValues></_>
        <_>
          <internalNodes>
            0 -1 17 8.0862815957516432e-04</internalNodes>
          <leafValues>
            -4.7745531797409058e-01 5.6978607177734375e-01</leafValues></_></weakClassifiers></_>
    <!-- stage 6 -->
    <_>
      <maxWeakCount>5</maxWeakCount>
      <stageThreshold>-1.7426505684852600e-01</stageThreshold>
      <weakClassifiers>
        <_>
          <internalNodes>
            0 -1 28 -1.6138965263962746e-02</internalNodes>
          <leafValues>
            7.1428573131561279e-01 -3.8028168678283691e-01</leafValues></_>
        <_>
          <internalNodes>
            0 -1 37 5.5855307728052139e-03</internalNodes>
          <leafValues>
            -5.3802931308746338e-01 5.2905613183975220e-01</leafValues></_>
        <_>
          <internalNodes>
            0 -1 61 -1.3930386863648891e-02</internalNodes>
          <leafValues>
            -7.2650331258773804e-01 3.5413321852684021e-01</leafValues></_>
        <_>
          <internalNodes>
            0 -1 9 2.2269054315984249e-03</internalNodes>
          <leafValues>
            -3.0364757776260376e-01 9.4704800844192505e-01</leafValues></_>
        <_>
          <internalNodes>
            0 -1 27 4.2714943992905319e-04</internalNodes>
          <leafValues>
            -3.7352514266967773e-01 7.6480937004089355e-01</leafValues></_></weakClassifiers></_>
    <!-- stage 7 -->
    <_>
      <maxWeakCount>4</maxWeakCount>
      <stageThreshold>7.8439675271511078e-03</stageThreshold>
      <weakClassifiers>
        <_>
          <internalNodes>
            0 -1 54 -1.2728178873658180e-02</internalNodes>
          <leafValues>
            8.8888889551162720e-01 -9.2592589557170868e-02</leafValues></_>
        <_>
          <internalNodes>
            0 -1 1 1.6836732393130660e-03</internalNodes>
          <leafValues>
            -2.8846484422683716e-01 6.9458878040313721e-01</leafValues></_>
        <_>
          <internalNodes>
            0 -1 38 5.8798510581254959e-03</internalNodes>
          <leafValues>
            -3.8559672236442566e-01 6.8732994794845581e-01</leafValues></_>
        <_>
          <internalNodes>
            0 -1 23 6.1909789219498634e-03</internalNodes>
          <leafValues>
            -2.0698335766792297e-01 9.5541214942932129e-01</leafValues></_></weakClassifiers></_>
    <!-- stage 8 -->
    <_>
      <maxWeakCount>6</maxWeakCount>
      <stageThreshold>-7.0805108547210693e-01</stageThreshold>
      <weakClassifiers>
        <_>
          <internalNodes>
            0 -1 20 -1.9081315398216248e-01</internalNodes>
          <leafValues>
            -9.1666668653488159e-01 4.3478259444236755e-01</leafValues></_>
        <_>
          <internalNodes>
            0 -1 18 -5.0125606358051300e-02</internalNodes>
          <leafValues>
            8.9682465791702271e-01 -2.7991002798080444e-01</leafValues></_>
        <_>
          <internalNodes>
            0 -1 33 3.7334891967475414e-03</internalNodes>
          <leafValues>
            -4.5397743582725525e-01 5.8524525165557861e-01</leafValues></_>
        <_>
          <internalNodes>
            0 -1 15 5.0164805725216866e-03</internalNodes>
          <leafValues>
            -4.7009935975074768e-01 6.2960118055343628e-01</leafValues></_>
        <_>
          <internalNodes>
            0 -1 10 1.7998659983277321e-02</internalNodes>
          <leafValues>
            3.7315708398818970e-01 -7.9128223657608032e-01</leafValues></_>
        <_>
          <internalNodes>
            0 -1 16 2.4260558187961578e-02</internalNodes>
          <leafValues>
            -3.1200397014617920e-01 1.</leafValues></_></weakClassifiers></_>
    <!-- stage 9 -->
    <_>
      <maxWeakCount>6</maxWeakCount>
      <stageThreshold>-2.8573805093765259e-01</stageThreshold>
      <weakClassifiers>
        <_>
          <internalNodes>
            0 -1 36 -1.1445395648479462e-02</internalNodes>
          <leafValues>
            7.6744186878204346e-01 -3.6842104792594910e-01</leafValues></_>
        <_>
          <internalNodes>
            0 -1 49 2.9989765607751906e-04</internalNodes>
          <leafValues>
            -1.7367117106914520e-01 9.1306626796722412e-01</leafValues></_>
        <_>
          <internalNodes>
            0 -1 21 -1.0146264918148518e-02</internalNodes>
          <leafValues>
            9.0509790182113647e-01 -2.1756815910339355e-01</leafValues></_>
        <_>
          <internalNodes>
            0 -1 0 -5.9895608574151993e-03</internalNodes>
          <leafValues>
            -6.6519188880920410e-01 4.0341728925704956e-01</leafValues></_>
        <_>
          <internalNodes>
            0 -1 57 2.5123337400145829e-04</internalNodes>
          <leafValues>
            -5.0093907117843628e-01 5.5339467525482178e-01</leafValues></_>
        <_>
          <internalNodes>
            0 -1 58 6.7587949160952121e-05</internalNodes>
          <leafValues>
            -4.8142257332801819e-01 5.8571952581405640e-01</leafValues></_></weakClassifiers></_>
    <!-- stage 10 -->
    <_>
      <maxWeakCount>6</maxWeakCount>
      <stageThreshold>-4.3927311897277832e-01</stageThreshold>
      <weakClassifiers>
        <_>
          <internalNodes>
            0 -1 63 -1.4567580074071884e-03</internalNodes>
          <leafValues>
            -4.3396225571632385e-01 5.5963301658630371e-01</leafValues></_>
        <_>
          <internalNodes>
            0 -1 43 5.6497617624700069e-03</internalNodes>
          <leafValues>
            -2.7644938230514526e-01 9.2798066139221191e-01</leafValues></_>
        <_>
          <internalNodes>
            0 -1 42 -4.4395803706720471e-04</internalNodes>
          <leafValues>
            9.6602720022201538e-01 -2.1100687980651855e-01</leafValues></_>
        <_>
          <internalNodes>
            0 -1 13 3.0722394585609436e-03</internalNodes>
          <leafValues>
            4.7756311297416687e-01 -5.7038849592208862e-01</leafValues></_>
        <_>
          <internalNodes>
            0 -1 32 -8.9617818593978882e-03</internalNodes>
          <leafValues>
            7.6675683259963989e-01 -3.7246844172477722e-01</leafValues></_>
        <_>
          <internalNodes>
            0 -1 62 -3.1288198661059141e-03</internalNodes>
          <leafValues>
            -5.9488618373870850e-01 4.3140703439712524e-01</leafValues></_></weakClassifiers></_>
    <!-- stage 11 -->
    <_>
      <maxWeakCount>6</maxWeakCount>
      <stageThreshold>-1.8152473866939545e-01</stageThreshold>
      <weakClassifiers>
        <_>
          <internalNodes>
            0 -1 29 7.4448222294449806e-03</internalNodes>
          <leafValues>
            4.4360902905464172e-01 -7.2413790225982666e-01</leafValues></_>
        <_>
          <internalNodes>
            0 -1 41 1.0515152243897319e-03</internalNodes>
          <leafValues>
            -3.4024712443351746e-01 8.4938687086105347e-01</leafValues></_>
        <_>
          <internalNodes>
            0 -1 26 5.0113517791032791e-03</internalNodes>
          <leafValues>
            -2.5866287946701050e-01 8.4901607036590576e-01</leafValues></_>
        <_>
          <internalNodes>
            0 -1 50 -5.8974657440558076e-04</internalNodes>
          <leafValues>
            9.2335438728332520e-01 -1.7803515493869781e-01</leafValues></_>
        <_>
          <internalNodes>
            0 -1 45 3.0104331672191620e-03</internalNodes>
          <leafValues>
            -2.5360500812530518e-01 7.7989894151687622e-01</leafValues></_>
        <_>
          <internalNodes>
            0 -1 4 6.7154280841350555e-03</internalNodes>
          <leafValues>
            4.6548441052436829e-01 -6.1707121133804321e-01</leafValues></_></weakClassifiers></_></stages>
  <features>
    <_>
      <rects>
        <_>
          0 4 4 6 -1.</_>
        <_>
          0 7 4 3 2.</_></rects>
      <tilted>0</tilted></_>
    <_>
      <rects>
        <_>
          0 6 2 16 -1.</_>
        <_>
          0 14 2 8 2.</_></rects>
      <tilted>0</tilted></_>
    <_>
      <rects>
        <_>
          0 11 4 3 -1.</_>
        <_>
          2 11 2 3 2.</_></rects>
      <tilted>0</tilted></_>
    <_>
      <rects>
        <_>
          0 14 16 2 -1.</_>
        <_>
          8 14 8 2 2.</_></rects>
      <tilted>0</tilted></_>
    <_>
      <rects>
        <_>
          0 17 12 7 -1.</_>
        <_>
          6 17 6 7 2.</_></rects>
      <tilted>0</tilted></_>
    <_>
      <rects>
        <_>
          1 2 6 1 -1.</_>
        <_>
          4 2 3 1 2.</_></rects>
      <tilted>0</tilted></_>
    <_>
      <rects>
        <_>
          1 5 4 4 -1.</_>
        <_>
          1 5 2 2 2.</_>
        <_>
          3 7 2 2 2.</_></rects>
      <tilted>0</tilted></_>
    <_>
      <rects>
        <_>
          1 10 12 4 -1.</_>
        <_>
          5 10 4 4 3.</_></rects>
      <tilted>0</tilted></_>
    <_>
      <rects>
        <_>
          1 12 2 11 -1.</_>
        <_>
          2 12 1 11 2.</_></rects>
      <tilted>0</tilted></_>
    <_>
      <rects>
        <_>
          1 14 10 2 -1.</_>
        <_>
          1 14 5 1 2.</_>
        <_>
          6 15 5 1 2.</_></rects>
      <tilted>0</tilted></_>
    <_>
      <rects>
        <_>
          2 4 17 6 -1.</_>
        <_>
          2 7 17 3 2.</_></rects>
      <tilted>0</tilted></_>
    <_>
      <rects>
        <_>
          2 5 21 3 -1.</_>
        <_>
          2 6 21 1 3.</_></rects>
      <tilted>0</tilted></_>
    <_>
      <rects>
        <_>
          3 0 4 2 -1.</_>
        <_>
          3 1 4 1 2.</_></rects>
      <tilted>0</tilted></_>
    <_>
      <rects>
        <_>
          3 10 3 6 -1.</_>
        <_>
          3 13 3 3 2.</_></rects>
      <tilted>0</tilted></_>
    <_>
      <rects>
        <_>
          3 13 12 3 -1.</_>
        <_>
          9 13 6 3 2.</_></rects>
      <tilted>0</tilted></_>
    <_>
      <rects>
        <_>
          4 3 2 15 -1.</_>
        <_>
          4 8 2 5 3.</_></rects>
      <tilted>0</tilted></_>
    <_>
      <rects>
        <_>
          4 11 7 9 -1.</_>
        <_>
          4 14 7 3 3.</_></rects>
      <tilted>0</tilted></_>
    <_>
      <rects>
        <_>
          4 14 6 6 -1.</_>
        <_>
          4 16 6 2 3.</_></rects>
      <tilted>0</tilted></_>
    <_>
      <rects>
        <_>
          5 13 15 3 -1.</_>
        <_>
          10 13 5 3 3.</_></rects>
      <tilted>0</tilted></_>
    <_>
      <rects>
        <_>
          6 6 11 9 -1.</_>
        <_>
          6 9 11 3 3.</_></rects>
      <tilted>0</tilted></_>
    <_>
      <rects>
        <_>
          6 6 14 18 -1.</_>
        <_>
          6 15 14 9 2.</_></rects>
      <tilted>0</tilted></_>
    <_>
      <rects>
        <_>
          6 11 8 4 -1.</_>
        <_>
          6 11 4 2 2.</_>
        <_>
          10 13 4 2 2.</_></rects>
      <tilted>0</tilted></_>
    <_>
      <rects>
        <_>
          7 7 9 6 -1.</_>
        <_>
          10 7 3 6 3.</_></rects>
      <tilted>0</tilted></_>
    <_>
      <rects>
        <_>
          7 10 1 9 -1.</_>
        <_>
          7 13 1 3 3.</_></rects>
      <tilted>0</tilted></_>
    <_>
      <rects>
        <_>
          8 2 3 18 -1.</_>
        <_>
          8 11 3 9 2.</_></rects>
      <tilted>0</tilted></_>
    <_>
      <rects>
        <_>
          8 3 16 20 -1.</_>
        <_>
          16 3 8 20 2.</_></rects>
      <tilted>0</tilted></_>
    <_>
      <rects>
        <_>
          8 12 15 3 -1.</_>
        <_>
          8 13 15 1 3.</_></rects>
      <tilted>0</tilted></_>
    <_>
      <rects>
        <_>
          8 15 2 3 -1.</_>
        <_>
          8 16 2 1 3.</_></rects>
      <tilted>0</tilted></_>
    <_>
      <rects>
        <_>
          9 0 7 24 -1.</_>
        <_>
          9 8 7 8 3.</_></rects>
      <tilted>0</tilted></_>
    <_>
      <rects>
        <_>
          9 2 1 18 -1.</_>
        <_>
          9 11 1 9 2.</_></rects>
      <tilted>0</tilted></_>
    <_>
      <rects>
        <_>
          9 5 6 9 -1.</_>
        <_>
          11 5 2 9 3.</_></rects>
      <tilted>0</tilted></_>
    <_>
      <rects>
        <_>
          9 6 6 10 -1.</_>
        <_>
          11 6 2 10 3.</_></rects>
      <tilted>0</tilted></_>
    <_>
      <rects>
        <_>
          9 11 4 6 -1.</_>
        <_>
          9 11 2 3 2.</_>
        <_>
          11 14 2 3 2.</_></rects>
      <tilted>0</tilted></_>
    <_>
      <rects>
        <_>
          9 12 6 2 -1.</_>
        <_>
          11 12 2 2 3.</_></rects>
      <tilted>0</tilted></_>
    <_>
      <rects>
        <_>
          9 13 6 1 -1.</_>
        <_>
          11 13 2 1 3.</_></rects>
      <tilted>0</tilted></_>
    <_>
      <rects>
        <_>
          10 0 3 20 -1.</_>
        <_>
          11 0 1 20 3.</_></rects>
      <tilted>0</tilted></_>
    <_>
      <rects>
        <_>
          10 6 4 10 -1.</_>
        <_>
          10 11 4 5 2.</_></rects>
      <tilted>0</tilted></_>
    <_>
      <rects>
        <_>
          10 7 5 9 -1.</_>
        <_>
          10 10 5 3 3.</_></rects>
      <tilted>0</tilted></_>
    <_>
      <rects>
        <_>
          10 8 2 9 -1.</_>
        <_>
          10 11 2 3 3.</_></rects>
      <tilted>0</tilted></_>
    <_>
      <rects>
        <_>
          10 9 4 6 -1.</_>
        <_>
          10 11 4 2 3.</_></rects>
      <tilted>0</tilted></_>
    <_>
      <rects>
        <_>
          10 9 5 6 -1.</_>
        <_>
          10 12 5 3 2.</_></rects>
      <tilted>0</tilted></_>
    <_>
      <rects>
        <_>
          10 13 3 2 -1.</_>
        <_>
          11 13 1 2 3.</_></rects>
      <tilted>0</tilted></_>
    <_>
      <rects>
        <_>
          10 17 2 2 -1.</_>
        <_>
          10 17 1 1 2.</_>
        <_>
          11 18 1 1 2.</_></rects>
      <tilted>0</tilted></_>
    <_>
      <rects>
        <_>
          11 11 5 3 -1.</_>
        <_>
          11 12 5 1 3.</_></rects>
      <tilted>0</tilted></_>
    <_>
      <rects>
        <_>
          11 11 7 4 -1.</_>
        <_>
          11 13 7 2 2.</_></rects>
      <tilted>0</tilted></_>
    <_>
      <rects>
        <_>
          11 13 4 2 -1.</_>
        <_>
          11 13 2 1 2.</_>
        <_>
          13 14 2 1 2.</_></rects>
      <tilted>0</tilted></_>
    <_>
      <rects>
        <_>
          11 14 3 10 -1.</_>
        <_>
          11 19 3 5 2.</_></rects>
      <tilted>0</tilted></_>
    <_>
      <rects>
        <_>
          12 6 2 12 -1.</_>
        <_>
          12 12 2 6 2.</_></rects>
      <tilted>0</tilted></_>
    <_>
      <rects>
        <_>
          12 9 2 6 -1.</_>
        <_>
          12 11 2 2 3.</_></rects>
      <tilted>0</tilted></_>
    <_>
      <rects>
        <_>
          12 10 2 2 -1.</_>
        <_>
          12 10 1 1 2.</_>
        <_>
          13 11 1 1 2.</_></rects>
      <tilted>0</tilted></_>
    <_>
      <rects>
        <_>
          12 13 2 2 -1.</_>
        <_>
          12 13 1 1 2.</_>
        <_>
          13 14 1 1 2.</_></rects>
      <tilted>0</tilted></_>
    <_>
      <rects>
        <_>
          13 4 2 2 -1.</_>
        <_>
          13 4 1 1 2.</_>
        <_>
          14 5 1 1 2.</_></rects>
      <tilted>0</tilted></_>
    <_>
      <rects>
        <_>
          13 12 2 12 -1.</_>
        <_>
          13 18 2 6 2.</_></rects>
      <tilted>0</tilted></_>
    <_>
      <rects>
        <_>
          14 6 6 3 -1.</_>
        <_>
          14 7 6 1 3.</_></rects>
      <tilted>0</tilted></_>
    <_>
      <rects>
        <_>
          14 8 1 12 -1.</_>
        <_>
          14 12 1 4 3.</_></rects>
      <tilted>0</tilted></_>
    <_>
      <rects>
        <_>
          14 10 8 12 -1.</_>
        <_>
          14 10 4 6 2.</_>
        <_>
          18 16 4 6 2.</_></rects>
      <tilted>0</tilted></_>
    <_>
      <rects>
        <_>
          14 13 4 4 -1.</_>
        <_>
          14 13 2 2 2.</_>
        <_>
          16 15 2 2 2.</_></rects>
      <tilted>0</tilted></_>
    <_>
      <rects>
        <_>
          15 11 2 2 -1.</_>
        <_>
          15 12 2 1 2.</_></rects>
      <tilted>0</tilted></_>
    <_>
      <rects>
        <_>
          17 2 4 2 -1.</_>
        <_>
          17 2 2 1 2.</_>
        <_>
          19 3 2 1 2.</_></rects>
      <tilted>0</tilted></_>
    <_>
      <rects>
        <_>
          17 16 5 3 -1.</_>
        <_>
          17 17 5 1 3.</_></rects>
      <tilted>0</tilted></_>
    <_>
      <rects>
        <_>
          18 10 4 8 -1.</_>
        <_>
          18 14 4 4 2.</_></rects>
      <tilted>0</tilted></_>
    <_>
      <rects>
        <_>
          20 0 4 23 -1.</_>
        <_>
          22 0 2 23 2.</_></rects>
      <tilted>0</tilted></_>
    <_>
      <rects>
        <_>
          21 7 3 4 -1.</_>
        <_>
          21 9 3 2 2.</_></rects>
      <tilted>0</tilted></_>
    <_>
      <rects>
        <_>
          21 9 1 9 -1.</_>
        <_>
          21 12 1 3 3.</_></rects>
      <tilted>0</tilted></_></features></cascade>
</opencv_storage>
